<?xml version="1.0"?>
<opencv_storage>
<my_svm type_id="opencv-ml-svm">
  <svm_type>C_SVC</svm_type>
  <kernel><type>LINEAR</type></kernel>
  <C>1.</C>
  <term_criteria><epsilon>2.2204460492503131e-16</epsilon>
    <iterations>10000</iterations></term_criteria>
  <var_all>1764</var_all>
  <var_count>1764</var_count>
  <class_count>2</class_count>
  <class_labels type_id="opencv-matrix">
    <rows>1</rows>
    <cols>2</cols>
    <dt>i</dt>
    <data>
      0 1</data></class_labels>
  <sv_total>1</sv_total>
  <support_vectors>
    <_>
      1.00114003e-01 -1.13309287e-01 -1.11619823e-01 -6.26059398e-02
      2.37680860e-02 1.25718610e-02 -2.93903537e-02 1.39216129e-02
      1.21216953e-01 -3.12075834e-03 -1.05346523e-01 -1.12522349e-01
      -2.34879237e-02 2.25434750e-02 1.82058550e-02 -8.52377911e-04
      -2.42403848e-03 7.42108598e-02 6.03038259e-02 9.38385818e-03
      -7.09861666e-02 -1.23426868e-02 -1.44650554e-02 3.55906263e-02
      2.73227524e-02 3.57107669e-02 2.32679583e-02 -1.91326663e-02
      -5.18634319e-02 -5.41030578e-02 -2.27796268e-02 6.86688200e-02
      1.26624955e-02 3.66529413e-02 3.86839882e-02 1.32207097e-02
      2.96773929e-02 4.53428039e-03 -2.47498732e-02 5.50993718e-03
      6.69828430e-02 8.98521580e-03 6.43433854e-02 3.19061317e-02
      5.84697910e-02 8.56976509e-02 5.57229184e-02 -1.29747428e-02
      1.24966931e-02 7.98485354e-02 6.18832419e-03 7.77632669e-02
      6.44852966e-02 8.78838897e-02 -3.11608557e-02 -3.99465859e-02
      -1.04992069e-01 -6.43519387e-02 5.63932806e-02 -3.52621428e-03
      4.50966917e-02 1.09323161e-02 3.07042943e-03 3.32097406e-03
      -1.04226060e-01 -1.52429938e-01 -1.09053358e-01 2.90322257e-03
      -3.11402455e-02 5.71476147e-02 1.80442147e-02 -1.23118302e-02
      1.12040341e-01 6.13090694e-02 5.16933613e-02 2.27511046e-03
      4.25122976e-02 -2.46414021e-02 5.42372465e-02 3.07349265e-02
      7.00738728e-02 3.40893269e-02 1.07676340e-02 3.52104232e-02
      1.99043173e-02 7.96690434e-02 -1.64225586e-02 3.68541554e-02
      3.97148319e-02 1.44632906e-02 3.45528917e-03 -6.56567886e-02
      -7.92310461e-02 -5.75580262e-02 2.39758901e-02 -2.28718910e-02
      3.64064388e-02 2.50935294e-02 2.38872319e-03 -6.14570528e-02
      -6.58823401e-02 -1.04802348e-01 -4.79675941e-02 -2.21524537e-02
      -4.79268730e-02 1.83731057e-02 -4.24388237e-03 -3.45309847e-03
      -9.40448940e-02 -1.99055560e-02 2.30177976e-02 1.99481696e-02
      6.54224381e-02 -2.16725990e-02 1.01053873e-02 -9.62792989e-03
      -5.62947132e-02 -3.77885513e-02 1.71508919e-02 6.90082312e-02
      4.32745330e-02 1.22756056e-01 2.16659997e-02 3.82561460e-02
      5.37899882e-02 1.10357087e-02 -3.88801210e-02 -4.28868793e-02
      -7.99051821e-02 -5.28392196e-02 4.63648350e-04 -4.09362875e-02
      -3.59879248e-02 -5.43255508e-02 -2.10353117e-02 4.34699729e-02
      4.33995947e-02 -1.80913713e-02 -5.14835976e-02 1.45894373e-02
      -4.37192502e-05 1.61170941e-02 -2.76423395e-02 5.92053421e-02
      -7.21130744e-02 7.89127033e-03 6.59678206e-02 2.38330178e-02
      7.28584751e-02 3.39719863e-03 -7.41110765e-04 7.12763239e-03
      -3.98602989e-03 -3.17194201e-02 1.01919868e-03 4.98146228e-02
      4.29251827e-02 1.09307118e-01 3.93920951e-02 4.52235006e-02
      6.55731559e-02 3.01611181e-02 -5.29506169e-02 -2.44994592e-02
      -4.07077074e-02 -4.69400771e-02 1.37961488e-02 -9.83515661e-03
      -4.49715406e-02 -2.24941019e-02 1.02131162e-02 2.64153760e-02
      -1.68711394e-02 2.06294805e-02 -3.63372006e-02 2.07693409e-02
      -5.58137335e-03 6.40621968e-03 1.07656628e-01 6.32633194e-02
      -8.97791460e-02 1.36050163e-02 9.36597679e-03 4.97319438e-02
      5.10748476e-02 1.75372809e-02 4.07762639e-02 9.30859819e-02
      -1.81971882e-02 -3.10273767e-02 3.66383716e-02 3.35846879e-02
      5.95766716e-02 1.26404930e-02 -1.17218606e-02 1.32160876e-02
      5.30598052e-02 -7.19458461e-02 -6.85898960e-02 -2.37480383e-02
      -6.44278806e-03 1.27436323e-02 -8.27566534e-03 -3.13739628e-02
      8.44658166e-03 8.40854719e-02 3.18137333e-02 -6.76294565e-02
      -6.65226439e-03 -8.52590613e-03 4.67552170e-02 -3.83087136e-02
      -5.91870695e-02 9.20065958e-03 3.30457501e-02 3.96394124e-03
      3.37939821e-02 3.22663076e-02 3.91172245e-02 5.20436317e-02
      -1.73710585e-02 -5.63019179e-02 -2.83039156e-02 3.45116258e-02
      -3.80140953e-02 7.86736086e-02 6.52263537e-02 4.08713371e-02
      1.10664852e-01 4.41980436e-02 -4.01052684e-02 -5.64251952e-02
      3.85419466e-02 2.57262718e-02 -5.04241697e-02 -2.19269656e-02
      -1.19586941e-02 2.28221137e-02 -8.87046382e-02 -1.05063006e-01
      2.18401104e-02 5.88423200e-02 -8.51689547e-04 -2.94430517e-02
      -1.21868681e-02 -6.54290244e-02 6.32565394e-02 -8.93388316e-02
      -6.29357100e-02 -4.09311652e-02 1.12076044e-01 4.28206325e-02
      5.22724167e-02 8.12233388e-02 9.85249784e-03 -2.71831197e-03
      4.82864231e-02 1.66231971e-02 4.13434021e-02 -3.87746561e-03
      3.07125915e-02 4.66701984e-02 5.85083105e-02 -1.07725291e-02
      -2.20577028e-02 7.21679628e-02 -8.59364588e-03 2.49151345e-02
      4.75712726e-03 6.20320207e-03 3.82424593e-02 3.06500606e-02
      4.47107181e-02 -3.39398049e-02 -2.64721829e-02 -1.20320888e-02
      -9.14831704e-04 3.26763913e-02 7.16129094e-02 -6.47047348e-03
      2.13102810e-02 -2.11218093e-03 -2.88700666e-02 -9.15393815e-04
      -1.35984505e-02 -9.14341211e-03 -4.25388180e-02 -2.61005573e-02
      -1.23253046e-02 3.41958329e-02 -3.94620374e-02 -4.12416011e-02
      5.82554936e-02 -1.82970371e-02 6.98026037e-03 2.54045450e-03
      -1.10677471e-02 -2.56893579e-02 2.27006096e-02 -8.15057755e-02
      -4.77107093e-02 4.32315320e-02 -2.28759442e-02 5.77486157e-02
      7.15512633e-02 -3.04977614e-02 -4.64184359e-02 -4.33526607e-03
      7.43330270e-03 -2.03745253e-02 3.63184698e-02 2.71634525e-03
      1.39160817e-02 -1.08796284e-02 7.23583333e-04 3.61864790e-02
      2.42761821e-02 6.29047751e-02 -2.50822492e-02 8.99521410e-02
      -1.38757126e-02 3.88336889e-02 1.15941405e-01 3.63438800e-02
      -2.55976859e-02 -4.71503809e-02 -1.16825901e-01 -1.05972528e-01
      -3.20612043e-02 -2.63454467e-02 4.16057818e-02 4.98562194e-02
      -1.71311591e-02 3.48127517e-03 -7.80248493e-02 -7.66168684e-02
      -1.19569890e-01 -8.27195793e-02 -4.25789915e-02 2.02824492e-02
      2.13134177e-02 3.68041918e-02 1.50501942e-02 2.83141844e-02
      -2.12503839e-02 -6.86302781e-02 -6.19356148e-03 -1.46543365e-02
      1.83893852e-02 7.56260231e-02 2.67394017e-02 9.90890339e-02
      2.28022318e-02 -2.13398356e-02 -4.11359370e-02 -4.60577719e-02
      -2.37071384e-02 8.74141231e-03 6.54314682e-02 7.12577775e-02
      -4.33728956e-02 -5.36497720e-02 -8.59950632e-02 -6.91073537e-02
      -4.77890410e-02 -3.96114849e-02 4.57424758e-04 -1.90334823e-02
      -1.20176570e-02 -2.31068134e-02 2.17282046e-02 -4.08987738e-02
      -5.27675152e-02 -1.52666960e-02 -3.44552249e-02 -4.15550545e-02
      -2.26358995e-02 -2.50699501e-02 5.45344241e-02 3.55191063e-03
      1.22143906e-02 -1.48426183e-02 -1.73363909e-02 -6.54946407e-03
      -8.97970051e-03 2.96531692e-02 1.26344720e-02 5.86297847e-02
      9.22552496e-03 4.46383841e-02 6.23282827e-02 4.65858653e-02
      -1.50145283e-02 -1.55281899e-02 -2.35703737e-02 1.27309021e-02
      -3.13483514e-02 6.47929637e-03 -2.59216987e-02 -3.65238525e-02
      -7.41057098e-03 1.13596963e-02 4.51931544e-03 3.24755604e-03
      -5.52523788e-03 -6.98274001e-02 -2.72779772e-03 2.39913668e-02
      -1.66878700e-02 -8.10325984e-03 -2.54008714e-02 -2.66440883e-02
      4.37662341e-02 3.82174365e-02 -2.65813172e-02 -3.85812786e-03
      4.84779812e-02 4.87389527e-02 4.67574894e-02 7.05808308e-03
      -6.14011958e-02 -5.98711669e-02 -1.44389030e-02 -3.38196103e-03
      2.95369923e-02 2.96063982e-02 -9.02280957e-03 1.74037386e-02
      2.72594043e-03 -5.61437896e-03 -1.29050696e-02 2.42986064e-02
      -3.82656343e-02 3.77948321e-02 3.06677166e-02 3.01125497e-02
      -7.08354171e-03 -1.05698844e-02 -2.50583589e-02 7.07896501e-02
      6.87901378e-02 -4.08967063e-02 9.31149628e-03 3.33564170e-02
      3.73791344e-02 -2.93787494e-02 -4.22879420e-02 3.94703336e-02
      6.86401352e-02 1.40854651e-02 4.68577854e-02 4.66262028e-02
      5.93741760e-02 -1.06941331e-02 -8.49494152e-03 -2.02243365e-02
      -2.19909847e-02 5.50607592e-02 5.64862490e-02 3.63297984e-02
      -2.30344106e-02 -7.33009493e-03 2.07801703e-02 -5.41671701e-02
      -2.48501599e-02 2.12731212e-02 6.48731217e-02 -3.17084864e-02
      -4.19965982e-02 -2.67100465e-02 -3.93924341e-02 2.76197493e-02
      -4.60386723e-02 -5.76498732e-02 5.99873029e-02 1.01007119e-01
      1.80064067e-02 -4.27192301e-02 -1.35174696e-03 -2.39562895e-02
      5.74602410e-02 -3.82709876e-02 -7.23223612e-02 3.40369381e-02
      1.58690512e-01 2.05571670e-03 4.33629379e-02 3.03952377e-02
      -1.76310465e-02 1.58575065e-02 -9.07476153e-03 7.12390430e-03
      3.21057402e-02 5.40166311e-02 1.57361981e-02 -3.19612771e-02
      2.82933619e-02 -2.84386519e-02 -1.76167246e-02 -5.61039597e-02
      3.15746590e-02 1.92828581e-03 -9.65874456e-03 -3.01979166e-02
      4.53762375e-02 2.21560057e-02 3.07463557e-02 -2.77004112e-02
      -6.12893365e-02 -5.44885285e-02 1.05025796e-02 6.78035095e-02
      7.59975091e-02 2.05589030e-02 2.29843166e-02 5.88220730e-02
      -5.22909053e-02 1.58506110e-02 -8.47286137e-04 2.56949179e-02
      1.91269338e-03 -2.36370135e-03 8.52966532e-02 3.21500264e-02
      8.47810134e-02 -1.97778735e-02 6.95499172e-03 -3.37416492e-02
      -3.01766302e-02 -1.51766250e-02 4.98097055e-02 -2.23828778e-02
      1.47905713e-02 3.51614319e-02 -3.14380750e-02 1.61629952e-02
      -6.98179901e-02 -3.43837254e-02 3.50643694e-02 -1.25919245e-02
      -1.04426585e-01 -2.10335925e-02 5.02456725e-03 -2.85793897e-02
      8.58232938e-03 -5.02696214e-03 1.19336965e-02 2.16809865e-02
      -7.96679929e-02 -1.91364158e-02 4.77370881e-02 7.30300099e-02
      5.28637506e-02 6.30929172e-02 -2.65038833e-02 -8.64488073e-03
      5.79527877e-02 -4.43387367e-02 -1.04474425e-01 -7.80126639e-03
      2.76904181e-02 1.44526400e-02 6.91905105e-03 -2.69741286e-02
      9.24641173e-03 5.78044541e-02 -6.59597665e-02 -1.98777430e-02
      1.07088998e-01 1.03130952e-01 8.82443860e-02 1.14993788e-01
      -3.27730402e-02 -1.11899460e-02 5.53361811e-02 -6.35201782e-02
      -2.19857227e-02 2.76882350e-02 -9.58544854e-03 2.21390575e-02
      3.27841938e-02 -3.11647430e-02 -2.37706210e-02 2.31302027e-02
      -3.83957401e-02 2.95635331e-02 -2.91418191e-03 1.45310629e-02
      4.03782837e-02 8.22709873e-02 2.61048810e-03 -3.26350480e-02
      8.69201776e-03 8.99580598e-04 2.92076301e-02 6.37136921e-02
      4.78753075e-02 1.67549681e-02 1.02489674e-02 -4.13250886e-02
      -4.52899411e-02 2.85025910e-02 2.16748975e-02 1.53565994e-02
      -1.24830496e-03 -2.94779204e-02 -7.25051295e-03 2.88337711e-02
      -1.13407793e-02 -1.18257757e-02 2.52095014e-02 3.76526229e-02
      4.89848386e-03 -9.39983130e-03 6.15440346e-02 5.99585101e-02
      8.63774717e-02 7.48278899e-03 -3.84421796e-02 -8.52316320e-02
      -4.62875962e-02 -2.58763991e-02 -1.61555354e-02 3.32540572e-02
      7.18406811e-02 9.48491767e-02 5.03771231e-02 7.00763753e-03
      -2.19914429e-02 -8.32787808e-03 -4.83596092e-03 -4.51196693e-02
      1.09474706e-02 3.19680460e-02 2.87577622e-02 1.00231369e-03
      -3.13211009e-02 -7.20654875e-02 -2.41523311e-02 7.36557296e-04
      -2.34191883e-02 1.89792477e-02 4.39065360e-02 5.83749600e-02
      6.15432335e-04 1.15568014e-02 4.40957211e-03 -3.23491916e-02
      -8.26731995e-02 -3.14605013e-02 -2.82259216e-03 5.51521927e-02
      6.32119626e-02 5.61922006e-02 -1.43379904e-02 -1.75727289e-02
      -1.64075699e-02 -1.22724455e-02 5.83369397e-02 1.26905572e-02
      1.79403946e-02 1.25025464e-02 4.32052277e-02 4.20925543e-02
      2.91539449e-02 1.45231104e-02 -5.52563109e-02 9.11868736e-03
      -3.85532305e-02 -7.49981496e-04 -8.60032346e-03 1.29764769e-02
      1.10913552e-02 4.48907614e-02 5.19338623e-02 -3.16082276e-02
      2.14340650e-02 -2.55247764e-02 -2.67032888e-02 2.13174392e-02
      -5.53822005e-03 -5.60714584e-03 6.46762624e-02 5.42887859e-02
      3.53901237e-02 6.29219413e-02 1.29756182e-02 -1.11010065e-02
      -1.09161464e-02 -3.43470201e-02 4.41101938e-03 4.70998809e-02
      4.87836115e-02 5.97556829e-02 4.65560406e-02 -1.87599217e-03
      -4.19212542e-02 2.51109526e-03 -1.16515169e-02 8.71095620e-03
      2.51709316e-02 -2.09038369e-02 5.02777733e-02 5.75575903e-02
      -4.47165817e-02 -1.01207145e-01 1.87304094e-02 -7.46094435e-02
      -2.18185205e-02 4.69796918e-02 3.68312187e-02 3.06323003e-02
      5.06497845e-02 1.34126842e-02 -3.31435315e-02 -2.22237706e-02
      -9.18643102e-02 -2.65911147e-02 1.93676259e-02 -3.65167372e-02
      5.73546179e-02 4.80872169e-02 -2.13921722e-02 5.37346071e-03
      5.56551702e-02 1.61809158e-02 -1.03296991e-02 -5.67635037e-02
      2.40153261e-02 3.00078280e-02 1.66063644e-02 -3.77623960e-02
      -3.19820270e-02 1.28783040e-05 1.49791809e-02 -4.85145189e-02
      -9.07314643e-02 5.38494671e-03 4.49954299e-03 2.37915087e-02
      -7.67671177e-03 3.10077555e-02 -2.28147339e-02 -6.36918247e-02
      -3.93160172e-02 -3.17844488e-02 -2.95369942e-02 6.97855502e-02
      2.56246887e-02 -3.58575471e-02 -1.85648594e-02 1.28350845e-02
      -1.80643378e-03 -6.09278027e-03 -1.14148594e-02 4.59985361e-02
      1.21980555e-01 7.61150643e-02 6.35946617e-02 -6.13510655e-03
      2.69111618e-02 -2.57999115e-02 -1.69948824e-02 -4.45754230e-02
      4.27877642e-02 3.59261334e-02 2.04575546e-02 4.57382239e-02
      -1.46782538e-02 -1.45306876e-02 -6.16839379e-02 -6.05645552e-02
      -3.94788198e-02 8.84434655e-02 7.72245675e-02 2.44798250e-02
      5.09531349e-02 1.23402616e-02 8.42779204e-02 5.93012087e-02
      9.96206701e-02 -3.66865396e-02 6.89156428e-02 -3.20733618e-03
      -2.60384195e-02 4.14728969e-02 -5.14585758e-03 5.20624146e-02
      -2.33859122e-02 7.58812949e-02 -3.61144096e-02 5.30109815e-02
      -6.92914948e-02 -2.89574973e-02 -1.43248793e-02 -2.32682154e-02
      -2.53929058e-03 -4.03206460e-02 -2.68196613e-02 1.22882845e-02
      -2.36178879e-02 -2.37405598e-02 7.60108978e-02 6.43160343e-02
      3.90443839e-02 9.95691866e-02 4.39215936e-02 6.80900663e-02
      7.72002265e-02 -2.62537356e-02 -3.49000916e-02 -3.71491536e-02
      2.58397795e-02 -3.67822908e-02 1.16287703e-02 -3.30002010e-02
      3.02945939e-03 4.72868979e-03 -3.17107178e-02 -3.30125615e-02
      3.06497049e-02 4.86284345e-02 6.30598562e-03 9.08598527e-02
      -1.20460894e-02 6.56984523e-02 4.85701263e-02 -8.50935839e-03
      -8.09319224e-03 -1.58177502e-03 2.53594480e-04 -1.77393649e-02
      -8.14147200e-03 -4.11649346e-02 -4.83469246e-03 1.72335524e-02
      4.10689190e-02 9.26236287e-02 6.16408838e-03 -2.44223196e-02
      -2.96265464e-02 -1.65981371e-02 -1.13398302e-02 3.71700455e-03
      -4.52869805e-04 1.13331385e-01 -5.35517260e-02 5.28204553e-02
      1.67215187e-02 -9.83587746e-03 -1.11500891e-02 -3.70980427e-02
      4.02533263e-02 -1.34719340e-02 -1.00783799e-02 8.56165886e-02
      7.95282051e-02 1.46219544e-02 -5.37530566e-03 1.50886839e-02
      -6.05619187e-03 9.02036019e-03 1.28230583e-02 5.52661456e-02
      1.11445144e-01 -9.88879055e-03 -5.32373302e-02 9.16910544e-03
      -1.63831413e-02 -2.64798962e-02 -9.86103155e-03 -3.75465192e-02
      9.85100493e-02 5.29737659e-02 -1.33330247e-03 -1.17731243e-02
      3.16968113e-02 3.87891233e-02 -1.28293037e-02 -4.67715785e-02
      -3.73812020e-02 4.07536440e-02 7.95941353e-02 4.03962955e-02
      -2.64637060e-02 1.08144302e-02 1.10622430e-02 -9.75265168e-03
      -3.14467512e-02 -2.51730345e-02 4.83740941e-02 3.27816308e-02
      1.45631498e-02 -3.12534114e-03 5.32224774e-02 6.51018992e-02
      4.37166058e-02 -1.78181771e-02 -1.57581754e-02 3.52080376e-03
      -1.26508381e-02 -2.39536297e-02 -5.50609231e-02 -8.29466432e-03
      5.63450307e-02 2.68774666e-02 1.41468402e-02 1.91206504e-02
      6.42497912e-02 -4.07013074e-02 -7.41032884e-03 -5.69153912e-02
      -3.56075205e-02 5.66602685e-02 1.69531163e-02 1.28083667e-02
      1.05107483e-02 1.50142768e-02 -1.06652370e-02 9.06129554e-03
      3.58466781e-03 5.68416603e-02 1.29751921e-01 8.43491256e-02
      -2.90563274e-02 -3.49589018e-03 -2.95924675e-02 -3.52218486e-02
      -1.75593905e-02 -1.58117581e-02 6.30394835e-03 8.36447179e-02
      -1.20095629e-02 2.38462798e-02 -1.41259599e-02 -2.78892815e-02
      7.70533131e-03 5.28549291e-02 -3.44352350e-02 -3.95794138e-02
      6.46974221e-02 -1.17355296e-02 -1.46500254e-03 4.30009142e-02
      -8.09201854e-04 -1.93177909e-02 2.65800096e-02 1.12966187e-02
      -5.69542386e-02 -2.68882532e-02 -1.07398108e-01 -5.20494506e-02
      1.19351712e-03 -1.05456598e-02 -2.01782044e-02 2.07091756e-02
      -2.28678826e-02 1.27923246e-02 1.55635938e-01 6.38286397e-02
      6.54445291e-02 5.78768291e-02 6.97700586e-03 2.28934034e-04
      4.32305876e-03 -2.79736277e-02 -5.85270226e-02 5.80600016e-02
      5.65343760e-02 1.46876099e-02 6.87562162e-03 -2.42062891e-03
      4.37413342e-02 7.36217713e-03 -1.15514658e-02 -3.76339443e-02
      -3.36211286e-02 -8.92074481e-02 -5.68944812e-02 -5.74253313e-03
      1.02068316e-02 1.16106175e-01 6.93493932e-02 -1.32689644e-02
      2.04823585e-03 5.94559088e-02 -1.49410265e-02 -2.42719171e-03
      2.53115408e-02 1.08047932e-01 2.51366682e-02 5.02317362e-02
      1.04683498e-02 -4.29495759e-02 3.11746299e-02 6.57520629e-03
      -2.05049943e-02 3.93889798e-03 2.46056495e-03 1.26212344e-01
      7.27337301e-02 9.00793821e-02 1.97950471e-02 7.85825774e-02
      1.32653508e-02 7.29050313e-04 -3.22971977e-02 4.88345101e-02
      3.91738787e-02 -3.01364195e-02 -3.14120315e-02 -7.76465749e-04
      5.29032312e-02 4.50293720e-02 9.67087969e-02 -4.36919518e-02
      2.47883685e-02 -6.87584560e-03 -4.18876521e-02 -3.06003653e-02
      -2.75014527e-02 -2.16700626e-03 -7.27040274e-03 4.32092249e-02
      -2.67213546e-02 2.00286303e-02 1.00213531e-02 -7.87723139e-02
      -8.24662577e-03 2.62042251e-03 -4.37942073e-02 -1.28069539e-02
      5.90631254e-02 3.12099140e-02 -3.59377451e-03 -3.25862803e-02
      -9.64262560e-02 4.21544537e-03 2.86907032e-02 -1.27894925e-02
      2.01952532e-02 5.76899797e-02 6.02931902e-02 -8.71871691e-03
      3.51911760e-03 -4.52720709e-02 7.21468765e-04 -6.66263625e-02
      -5.77470399e-02 -3.44795547e-02 2.92862225e-02 3.04567590e-02
      4.05891595e-04 -3.06048617e-02 4.90773469e-02 7.64990076e-02
      -1.52288359e-02 5.30718341e-02 -2.65539568e-02 4.95614186e-02
      3.67621854e-02 9.53730952e-04 -7.77597576e-02 -3.95841859e-02
      4.20008600e-02 1.60365067e-02 -2.73860246e-03 -1.90289710e-02
      2.15527359e-02 2.70789694e-02 -7.65040219e-02 -4.66012247e-02
      1.12064421e-01 8.33756477e-02 2.19632126e-02 5.33701945e-03
      -2.44641881e-02 1.11184297e-02 -4.71353307e-02 -5.92137463e-02
      -3.70039083e-02 2.76285540e-02 3.54574397e-02 -2.08176742e-03
      1.97393838e-02 -5.50926523e-03 5.06528048e-03 1.04941695e-03
      2.34091096e-02 3.84860411e-02 9.93665121e-03 4.79872245e-03
      7.92424381e-03 4.78695408e-02 1.18746394e-02 -3.67856883e-02
      3.26008908e-02 4.07562591e-02 -2.41056494e-02 7.20574856e-02
      4.68515456e-02 7.88261648e-04 2.27795560e-02 -1.11917593e-02
      2.96518523e-02 1.09005347e-02 -4.91926260e-02 -3.77732180e-02
      1.06055550e-02 2.60724351e-02 -1.03555934e-03 4.84587997e-02
      2.10917392e-03 -1.17194094e-02 -5.86029980e-03 -3.35453488e-02
      4.98761833e-02 7.12164026e-03 -2.37537138e-02 1.58481319e-02
      5.24441525e-02 2.36197654e-02 -7.80494930e-03 -1.67515371e-02
      3.40428278e-02 3.91274691e-02 2.08032951e-02 1.43228704e-02
      5.70785403e-02 1.03935421e-01 4.60168906e-02 1.14951553e-02
      1.47439437e-02 2.01530829e-02 -3.93162519e-02 -1.59533788e-02
      -6.13221573e-03 2.83138715e-02 7.92791545e-02 3.04463916e-02
      -3.37853879e-02 2.66900081e-02 -3.71154919e-02 -1.51812369e-02
      4.59489739e-03 1.84170175e-02 3.91766988e-02 1.02277227e-01
      3.95232402e-02 -7.58568663e-03 -2.44832020e-02 -7.68705755e-02
      2.56861225e-02 1.91264972e-02 -2.22757924e-02 6.45973235e-02
      1.25597909e-01 4.53193709e-02 1.69916674e-02 3.80895883e-02
      2.90441643e-02 3.77902808e-03 -9.71173123e-03 1.34023987e-02
      5.82390167e-02 9.18094143e-02 -1.84357017e-02 -5.77459903e-03
      4.22539599e-02 3.03807762e-02 -2.07422245e-02 2.23590148e-04
      3.69605795e-02 3.82517613e-02 1.16628245e-01 3.85921560e-02
      1.14539247e-02 3.29601113e-03 -3.00583951e-02 -5.48043735e-02
      1.98887456e-02 -2.30717985e-03 6.27817633e-03 4.28389832e-02
      -3.98190431e-02 1.85698252e-02 4.08159234e-02 -1.14866914e-02
      -4.42869067e-02 1.53104626e-02 -1.94233842e-02 2.43756305e-02
      7.81201646e-02 2.17187032e-02 3.77822593e-02 4.51459885e-02
      -3.15918922e-02 -2.96309087e-02 2.72860788e-02 -6.31821677e-02
      -4.14297506e-02 4.63522077e-02 3.39060239e-02 6.29822537e-03
      -7.60403275e-03 -2.20245235e-02 -2.18385495e-02 6.18783338e-03
      -1.52038932e-02 4.93621677e-02 5.43857478e-02 1.46448389e-02
      2.71807741e-02 6.93022087e-02 2.18375064e-02 -4.34453525e-02
      8.94019939e-03 -7.04928115e-02 -6.88642263e-02 6.24257922e-02
      2.79356539e-02 5.07444963e-02 -2.92963907e-02 -2.80714426e-02
      1.02902636e-01 5.78101911e-02 2.06734631e-02 1.02667054e-02
      6.89624324e-02 3.79257500e-02 1.57365426e-02 4.34707210e-04
      6.67193606e-02 9.09090340e-02 5.93078509e-02 9.34198350e-02
      3.11452821e-02 3.39331478e-02 9.88064520e-03 -4.63432185e-02
      -1.27903670e-02 6.11816496e-02 6.46336153e-02 3.53809036e-02
      -4.75530215e-02 -1.02928691e-01 1.22117093e-02 -4.03221650e-03
      9.70676076e-03 -9.31256786e-02 -1.77500260e-04 7.14537725e-02
      3.02583370e-02 6.16071140e-03 -5.16767800e-02 -3.69897857e-02
      -3.56026292e-02 -2.30712555e-02 -1.55337006e-01 4.19346169e-02
      5.45829209e-03 -3.11081950e-02 -5.28772436e-02 -1.76553372e-02
      -7.18699619e-02 -5.41782342e-02 2.03887606e-03 2.20162235e-02
      -1.02396973e-03 -1.28810294e-02 -9.13055316e-02 -5.50456159e-03
      2.30035596e-02 -3.05777639e-02 -2.71955822e-02 8.86596180e-03
      4.04219180e-02 2.86228526e-02 1.40948802e-01 -1.11837247e-02
      -4.48009819e-02 -1.72296781e-02 -1.04404710e-01 -5.43002896e-02
      1.55563680e-02 1.13486074e-01 1.40812740e-01 6.59571588e-02
      -4.73965630e-02 -1.02043688e-01 -8.91140569e-03 -6.50137663e-02
      -3.90313938e-02 -6.02733195e-02 -3.12849600e-03 9.44433138e-02
      -2.51782145e-02 -6.73104078e-02 1.18909916e-02 1.06571382e-03
      3.24912891e-02 6.73180865e-03 1.80209763e-02 1.99440941e-02
      -3.46169472e-02 1.66397020e-02 4.59770747e-02 3.89298536e-02
      -3.63588743e-02 2.23715175e-02 -7.82994777e-02 -8.44536873e-04
      -5.08764647e-02 -2.01237332e-02 5.43044508e-02 -6.49198964e-02
      -2.43997611e-02 -1.96259413e-02 -1.80022269e-02 -2.72529405e-02
      -2.20125485e-02 -3.26035805e-02 1.88764092e-02 4.64752689e-02
      5.46706766e-02 4.40831371e-02 -1.00869257e-02 1.35444989e-02
      -4.59836945e-02 7.88289588e-03 5.50520271e-02 1.50633389e-02
      -5.29648140e-02 5.69004454e-02 3.09960209e-02 -3.33314724e-02
      6.39075739e-03 -4.36074622e-02 -6.57835277e-03 -5.67447655e-02
      -5.96457124e-02 -3.13808657e-02 2.62238793e-02 2.15693023e-02
      -8.04827176e-03 2.41938066e-02 8.14790372e-03 3.50905508e-02
      5.29198609e-02 -2.68040560e-02 5.47248945e-02 7.46734887e-02
      4.92800102e-02 -1.38672562e-02 -1.60184354e-02 -3.93094048e-02
      -5.54291494e-02 -1.84805039e-02 -1.02874609e-02 5.89722879e-02
      8.59290585e-02 5.45621775e-02 -8.54446366e-03 -1.36216879e-02
      -3.82015407e-02 -3.15197259e-02 2.51228875e-03 -2.05424409e-02
      -1.29132904e-02 1.13640651e-02 -1.53647913e-02 -1.56739391e-02
      3.10858302e-02 1.75279975e-02 -5.78229036e-03 7.32726082e-02
      -2.46184431e-02 -8.05826159e-04 2.02948637e-02 1.98313426e-02
      -2.40372792e-02 3.44705246e-02 2.93345228e-02 -3.01498398e-02
      -6.20439881e-03 -1.39171677e-02 2.50825100e-02 5.11416309e-02
      3.94649729e-02 -1.54244089e-02 -1.96180996e-02 1.58483833e-02
      1.05776247e-02 -2.01120768e-02 -3.71212140e-02 1.92743223e-02
      -3.68901417e-02 -3.47577259e-02 -6.15601093e-02 2.63173878e-03
      -1.65608563e-02 -1.92897879e-02 -7.49126263e-03 1.86731177e-03
      1.37393782e-02 5.41928671e-02 3.08779255e-02 -9.74953920e-03
      4.90322672e-02 4.52966280e-02 2.17669215e-02 2.41258629e-02
      4.83279256e-03 -5.72246611e-02 4.51129600e-02 -1.52714634e-02
      6.81957090e-03 4.88349050e-02 7.41521874e-03 2.34068930e-03
      5.27688488e-02 -1.09759709e-02 1.12274457e-02 2.56353375e-02
      -2.84334458e-02 -4.39296030e-02 1.85043011e-02 2.18834751e-03
      -1.91619527e-02 3.98401208e-02 6.68148696e-02 3.46392277e-03
      1.21918358e-02 -9.17789117e-02 -1.82267148e-02 3.05056814e-02
      -2.50642169e-02 2.19195820e-02 6.27329620e-03 3.66973155e-03
      -1.00648627e-02 4.19864655e-02 6.31163223e-03 1.24219144e-02
      5.92912883e-02 -1.52707184e-02 -7.16297794e-03 4.58531938e-02
      5.82309403e-02 -1.77100748e-02 4.65475209e-02 -3.00914776e-02
      -5.51406406e-02 7.98471570e-02 2.71535572e-02 6.98680431e-03
      -5.01135066e-02 -1.23527460e-02 4.46562916e-02 2.25566514e-02
      -7.00162575e-02 -1.02044754e-02 6.98667020e-02 -3.69809866e-02
      2.96174157e-02 2.00488772e-02 6.00352623e-02 9.55810472e-02
      -1.07043097e-02 -5.64355068e-02 -3.18871289e-02 7.77468309e-02
      1.20074051e-02 8.02251045e-03 -1.27492264e-01 8.34180936e-02
      1.11795247e-01 7.10445493e-02 -6.96992278e-02 -1.41854480e-01
      7.07486365e-03 -1.43634407e-02 1.29893115e-02 -1.31875709e-01
      2.61860471e-02 2.11439177e-01 1.35591120e-01 -2.53590867e-02
      -5.35154082e-02 -1.51979467e-02 -3.98342907e-02 -1.00527756e-01
      -9.79933068e-02 6.39928877e-02 1.73356429e-01 1.36237256e-02
      -6.08784184e-02 -6.61410689e-02 9.98387039e-02 1.86904650e-02
      9.78672691e-03 -9.25746337e-02 4.65891510e-02 1.48228168e-01
      1.20916866e-01 -2.03145444e-02 -5.44089414e-02 2.60477886e-02
      -5.58551252e-02 -8.35821703e-02 -1.23785086e-01 3.38011980e-02
      1.47667781e-01 1.88934673e-02 -2.42617354e-02 3.38174403e-02
      -9.73075926e-02 -1.36654794e-01 -1.34428859e-01 7.57840648e-02
      1.36058733e-01 9.43768546e-02 -1.16243241e-02 -5.82033582e-02
      3.25016528e-02 -4.68604974e-02 -4.28120419e-02 -1.41209051e-01
      -1.06019333e-01 2.06974503e-02 1.21711075e-01 6.75896853e-02
      4.75259572e-02 1.07285440e-01 2.00048983e-02 -1.25026673e-01
      -1.13890462e-01 -9.31857824e-02 3.75019610e-02 9.46728289e-02
      6.71072677e-02 1.85997877e-02 8.43868926e-02 3.14123034e-02
      1.88915562e-02 -8.39200094e-02 -1.14017300e-01 -3.62143852e-02
      1.07069814e-03 -1.75543260e-02 -1.55955525e-02 1.65656041e-02
      -1.18902968e-02 8.68337974e-03 -7.51915053e-02 -1.06543496e-01
      -7.99120814e-02 9.23380256e-03 2.63684373e-02 2.73647588e-02
      2.38997843e-02 -1.93300713e-02 -5.48691303e-03 -3.43270674e-02
      -1.81631781e-02 -8.46041143e-02 -4.02518064e-02 4.13980223e-02
      2.20036115e-02 4.14768048e-02 3.38674821e-02 4.64962870e-02
      2.16411427e-02 -6.87595829e-02 -1.40550202e-02 -2.78822426e-02
      5.19599989e-02 4.13108058e-02 2.73892432e-02 5.74457049e-02
      2.78955586e-02 4.72757369e-02 6.65216614e-03 -3.34217995e-02
      4.01896350e-02 4.30086441e-02 5.35529517e-02 4.86388942e-03
      -2.05518510e-02 -5.06003015e-02 -2.99376287e-02 -2.71494649e-02
      -7.18417019e-02 2.13151406e-02 4.06390354e-02 3.66145261e-02
      -2.77742390e-02 1.08768214e-02 -1.56891197e-02 -3.35851833e-02
      -1.10916682e-02 -6.84491545e-02 -1.04206828e-02 4.97214794e-02
      6.14149757e-02 6.21477375e-03 5.54976948e-02 9.89691820e-03
      1.75386649e-02 -1.60056055e-02 -3.56600322e-02 -1.97074022e-02
      4.94369231e-02 1.55115435e-02 -3.57595496e-02 4.49156985e-02
      7.75789050e-03 3.78923342e-02 -5.47461212e-02 -4.46542054e-02
      1.04740718e-02 6.57701194e-02 6.19755499e-02 2.28340039e-03
      1.55184958e-02 1.14474008e-02 1.76145155e-02 -2.54883822e-02
      -7.59466961e-02 -4.54323553e-02 8.63317773e-03 6.12797551e-02
      2.29410157e-02 4.03453186e-02 7.91449845e-03 4.60786372e-03
      -1.74162183e-02 -7.62394667e-02 -4.66297194e-02 9.71536338e-02
      6.89195246e-02 -5.64771472e-03 7.84242228e-02 2.18973961e-02
      7.47051239e-02 -1.53427245e-02 -4.09988202e-02 -7.29683265e-02
      6.76820576e-02 1.02138422e-01 3.28691080e-02 7.94466659e-02
      3.99519727e-02 2.81065032e-02 -6.27892464e-02 -1.01091661e-01
      -1.30934402e-01 9.08355135e-03 2.78301891e-02 1.41022960e-02
      8.72728676e-02 3.19533534e-02 -3.79097415e-04 -9.94900055e-03
      -6.39747977e-02 -7.88064897e-02 -3.88756841e-02 2.30365316e-03
      -5.01832576e-04 9.37494934e-02 4.24354002e-02 2.77329963e-02
      1.02829710e-02 -6.44305274e-02 -1.08251855e-01 3.99093889e-02
      1.10726207e-01 5.47498986e-02 1.06000632e-01 8.43387768e-02
      3.12448889e-02 2.84853224e-02 -7.45972544e-02 -9.12217349e-02
      2.09660362e-02 8.49751011e-02 5.14307953e-02 1.33530125e-01
      6.19255826e-02 5.30631840e-02 4.81082238e-02 -2.50752307e-02
      -5.45752794e-02 -5.92271835e-02 -1.03496931e-01 -2.99580190e-02
      4.68402617e-02 -3.42197693e-03 1.81269157e-03 7.26327347e-03
      -1.63967498e-02 3.06226313e-02 -1.35254487e-01 -1.33657172e-01
      2.41694949e-03 9.23114792e-02 8.47315416e-03 -1.40230730e-02
      -5.69791459e-02 3.77413966e-02 -3.81602086e-02 -3.01725026e-02
      1.29026193e-02 5.65204881e-02 1.27353936e-01 4.43902239e-02
      2.02276185e-02 3.78867388e-02 2.22640019e-02 3.90428603e-02
      -9.40889642e-02 -2.91865487e-02 3.13711688e-02 1.00801915e-01
      2.84655988e-02 1.79213956e-02 3.20049562e-02 3.98859903e-02
      9.14671719e-02 -1.37143761e-01 -1.18886128e-01 -5.53542636e-02
      8.44611526e-02 4.26017679e-02 3.06812748e-02 -8.63480121e-02
      7.42911920e-02 7.48538226e-02 4.22321027e-03 -8.53959396e-02
      -1.06742457e-01 1.68191232e-02 1.51142636e-02 -6.57700747e-02
      -7.80260712e-02 3.96752134e-02 8.79839510e-02 -1.06012575e-01
      -1.12291619e-01 -2.14413181e-02 1.07368030e-01 3.93458344e-02
      6.25758320e-02 3.61817405e-02 1.39343560e-01 9.59507227e-02
      -7.96640739e-02 -1.25587344e-01 -1.06136106e-01 1.31767020e-01
      4.05915938e-02 1.54873729e-02 3.49961519e-02 1.26268685e-01</_></support_vectors>
  <decision_functions>
    <_>
      <sv_count>1</sv_count>
      <rho>2.1865328394706890e-01</rho>
      <alpha>
        1.</alpha>
      <index>
        0</index></_></decision_functions></my_svm>
</opencv_storage>
