<?xml version="1.0"?>
<opencv_storage>
<my_svm type_id="opencv-ml-svm">
  <svm_type>C_SVC</svm_type>
  <kernel><type>LINEAR</type></kernel>
  <C>1.</C>
  <term_criteria><epsilon>2.2204460492503131e-16</epsilon>
    <iterations>10000</iterations></term_criteria>
  <var_all>1764</var_all>
  <var_count>1764</var_count>
  <class_count>2</class_count>
  <class_labels type_id="opencv-matrix">
    <rows>1</rows>
    <cols>2</cols>
    <dt>i</dt>
    <data>
      0 1</data></class_labels>
  <sv_total>1</sv_total>
  <support_vectors>
    <_>
      1.03692494e-01 -4.40371335e-02 -1.04483642e-01 9.05784965e-03
      4.85162362e-02 3.82600129e-02 8.55458714e-03 5.56487143e-02
      1.04630388e-01 5.37893027e-02 -3.27150561e-02 -8.17144290e-02
      -4.75723594e-02 3.66804935e-03 -5.30943414e-03 3.83641683e-02
      3.78592387e-02 6.88812211e-02 8.06950331e-02 8.51464551e-03
      -1.66830212e-01 -6.67654499e-02 -8.50527436e-02 4.62123379e-02
      5.17377965e-02 -1.57514382e-02 3.43122035e-02 3.91379185e-02
      6.14425465e-02 -3.84612307e-02 -5.38659953e-02 1.00454281e-03
      -1.70643050e-02 4.83969897e-02 -3.50690037e-02 4.32817042e-02
      1.18748106e-01 4.44406271e-02 -1.67126637e-02 4.00787070e-02
      4.59116325e-02 6.05889969e-02 1.20963782e-01 1.29808769e-01
      1.02362975e-01 1.05287261e-01 -8.18007800e-04 -1.25137389e-01
      -1.72255859e-01 -1.11589327e-01 -1.37289509e-01 -8.45572352e-02
      -2.18048170e-02 4.67892885e-02 7.49906451e-02 7.37037584e-02
      4.39703800e-02 7.71869346e-02 6.69851005e-02 3.19301151e-02
      1.02412909e-01 7.68403858e-02 7.67966807e-02 8.07894841e-02
      6.08506240e-02 1.72163527e-02 2.39840224e-02 -4.56573404e-02
      -1.06085643e-01 -8.48700032e-02 -3.54816020e-02 -1.19650494e-02
      9.39574838e-02 3.66100147e-02 -9.12268683e-02 -1.14868365e-01
      -4.08288464e-02 -1.04235455e-01 -5.71716316e-02 -1.31534664e-02
      3.66820879e-02 2.06432808e-02 -6.66016340e-03 8.37088679e-04
      -2.32729260e-02 5.05104996e-02 8.79397336e-03 -6.63049100e-03
      5.72575070e-02 5.12968451e-02 7.28986636e-02 7.98880458e-02
      9.05917957e-02 1.08557619e-01 7.51718227e-03 -6.69220239e-02
      -7.87505209e-02 -3.67797166e-02 6.29283041e-02 2.23890357e-02
      7.23102316e-02 1.07939452e-01 1.59993812e-01 7.20695732e-03
      -1.49733676e-02 1.96051039e-02 6.39251545e-02 6.09593317e-02
      -1.32959232e-01 -9.01908800e-02 -1.68915801e-02 7.01837540e-02
      1.93091020e-01 3.16908844e-02 3.75435241e-02 7.80986995e-02
      -4.49582422e-03 -2.15219799e-02 -8.98356065e-02 -7.84169063e-02
      1.10857055e-01 1.37021944e-01 -1.01929205e-02 4.24822420e-02
      8.59905556e-02 1.01883657e-01 -1.02346040e-01 -3.87076028e-02
      9.26248208e-02 1.16107039e-01 8.20390210e-02 5.01397066e-02
      1.92011725e-02 1.22020900e-01 5.79956062e-02 -9.94461589e-03
      -1.35880545e-01 -4.00039135e-03 7.11042732e-02 4.87589203e-02
      4.05286551e-02 4.98121455e-02 1.15130804e-01 9.70162079e-02
      -1.65465266e-01 -2.11064622e-01 -2.67219424e-01 5.47368526e-02
      -5.00734383e-03 -2.70395707e-02 -1.60802919e-02 4.75811623e-02
      1.24045283e-01 3.16387154e-02 -1.18833594e-01 -4.12326455e-02
      6.19806238e-02 -2.06449106e-02 1.86721794e-02 1.55002093e-02
      1.30414754e-01 1.34985745e-01 4.14315052e-03 -4.41038869e-02
      -2.31232382e-02 1.80457234e-02 3.35750394e-02 2.24460009e-03
      4.30169851e-02 5.09253219e-02 8.90078843e-02 1.17088139e-01
      1.47821978e-01 1.40415311e-01 9.29436535e-02 5.26799401e-03
      -7.27703748e-03 1.90113690e-02 9.26270485e-02 8.26207548e-02
      -9.12800804e-02 3.99761498e-02 1.71123177e-03 7.71532133e-02
      -1.06884964e-01 3.51937637e-02 2.65341550e-02 3.90798450e-02
      -8.07040650e-03 -1.95603296e-02 5.69446571e-02 2.95828022e-02
      1.14788026e-01 -2.41450649e-02 8.83895438e-03 -7.56795984e-04
      -2.81554647e-02 -7.34129548e-02 2.19261609e-02 1.47964343e-01
      1.10062256e-01 6.21105991e-02 7.39965402e-03 1.28709916e-02
      2.38849409e-02 1.00672506e-02 -2.38717310e-02 1.21562649e-02
      -6.01671450e-03 2.04826286e-03 1.96511112e-03 -2.24971641e-02
      -2.72464077e-03 2.54432503e-02 3.33823003e-02 -6.91096438e-03
      1.23887382e-01 1.69940129e-01 9.49479043e-02 1.71810552e-01
      7.10570365e-02 5.72090819e-02 -1.12226124e-04 -2.55269632e-02
      4.83316882e-03 6.10517785e-02 -5.44991903e-02 -1.23958103e-01
      8.66320208e-02 8.08294266e-02 -1.18549401e-02 -1.33353442e-01
      -7.23449048e-03 4.83977757e-02 4.77406606e-02 6.20565154e-02
      2.11996641e-02 9.30708125e-02 -1.97966746e-03 -1.10653406e-02
      5.21474443e-02 5.25523499e-02 3.06156594e-02 6.73890114e-03
      -7.74084553e-02 -7.72819817e-02 3.16516608e-02 2.79982630e-02
      2.37839371e-02 1.51671665e-02 1.19520724e-01 6.76050484e-02
      1.85228866e-02 -6.31402479e-03 -9.36843604e-02 -4.49503697e-02
      -4.87612523e-02 1.50295105e-02 3.82794589e-02 4.25351504e-03
      -4.60443407e-04 1.82130039e-02 3.63462679e-02 2.27245819e-02
      1.28728827e-03 2.79127732e-02 -2.12624716e-03 -4.53575328e-02
      -2.51809992e-02 1.21311806e-02 1.23288995e-02 -4.48452160e-02
      -6.49591014e-02 -5.78458793e-02 -7.49014914e-02 7.30101019e-03
      -2.72069443e-02 3.57817151e-02 8.45623985e-02 1.36244446e-02
      1.03142662e-02 -2.62208320e-02 -2.26764511e-02 1.94744021e-02
      -7.61404494e-03 -5.94286807e-02 -2.71177460e-02 2.65805312e-02
      3.52083594e-02 5.39885610e-02 3.66002135e-02 6.42851219e-02
      2.06721146e-02 -2.59974375e-02 -5.39770722e-02 1.52519168e-02
      1.70486085e-02 -2.51986757e-02 6.37280792e-02 6.90618977e-02
      6.79328814e-02 2.18903944e-02 -9.82316285e-02 -1.33252174e-01
      -9.22218040e-02 -4.39864248e-02 -1.15959288e-03 8.44866224e-03
      1.29195098e-02 5.68045489e-02 1.21452339e-01 5.66425920e-02
      -6.21505789e-02 -1.74000245e-02 2.02087518e-02 2.52220724e-02
      2.95745675e-02 3.74420658e-02 7.20505118e-02 1.49122566e-01
      -2.66528595e-02 -1.39598072e-01 -9.37462002e-02 -4.14432734e-02
      -1.96221992e-02 3.32193114e-02 3.96502726e-02 7.07448423e-02
      -2.93520335e-02 -5.23390695e-02 -1.29205748e-01 -1.98730856e-01
      -4.29655127e-02 -5.48392162e-02 1.39408670e-02 2.75572930e-02
      4.18914370e-02 -6.65645376e-02 -6.39353618e-02 -4.86585982e-02
      -7.35377520e-02 -3.93209718e-02 3.92002985e-02 9.25183762e-03
      -8.86365213e-03 3.93877812e-02 8.94038528e-02 1.78464986e-02
      -4.22082059e-02 -5.15134912e-03 3.40106990e-03 6.42607212e-02
      8.73163622e-03 1.38887428e-02 5.54433875e-02 2.36316305e-02
      1.95526853e-02 1.26710609e-01 1.14753358e-01 6.02364428e-02
      -1.23046204e-01 -7.07125142e-02 1.57471057e-02 -1.13415066e-02
      -1.24351762e-01 -5.98265119e-02 -2.37337649e-02 -3.64928730e-02
      -4.35954556e-02 -7.71323219e-02 -1.09014310e-01 -3.61590609e-02
      -2.67901225e-03 -8.27872828e-02 -5.09342775e-02 -9.32993814e-02
      1.64961480e-02 1.65414922e-02 -1.73442252e-02 -1.89965218e-02
      2.35312711e-02 3.04492582e-02 -5.96517362e-02 1.07900770e-02
      7.61738420e-02 1.06493823e-01 4.87355888e-02 7.26389438e-02
      7.32626626e-03 3.37964073e-02 3.28431465e-02 -4.05564792e-02
      3.81395929e-02 3.24786156e-02 1.41444281e-01 7.89942145e-02
      -1.34955160e-02 -6.57812133e-03 1.16668157e-02 -1.17761048e-03
      -2.23295968e-02 -2.74992436e-02 -6.54764324e-02 -1.52830891e-02
      1.21718869e-02 3.70805711e-02 1.08356737e-01 6.32343069e-02
      -1.42811015e-02 -1.40374256e-02 -4.28697914e-02 7.12870795e-04
      -1.02749923e-02 1.03729069e-02 -2.34217178e-02 7.56805902e-03
      3.26840170e-02 3.57660726e-02 1.24213882e-02 7.30100870e-02
      -2.53033824e-03 4.84490171e-02 -3.53625393e-04 -1.90942269e-02
      -1.50345815e-02 7.40574254e-03 -2.49168836e-02 -1.36977416e-02
      -2.48257100e-04 4.40051593e-02 -5.47600687e-02 -1.73946619e-02
      5.38652167e-02 1.04758121e-01 5.64024821e-02 -3.41256559e-02
      2.32691076e-02 1.30512221e-02 5.02197333e-02 4.46825922e-02
      3.32465768e-02 5.11258654e-02 8.85537714e-02 5.87907759e-03
      -3.65371220e-02 1.65383853e-02 6.19255528e-02 1.18525818e-01
      1.33777633e-01 7.01800659e-02 3.69003676e-02 4.24086191e-02
      5.60170412e-02 -5.78261986e-02 1.09644895e-02 4.54617217e-02
      5.66627271e-02 5.02120778e-02 7.00414972e-03 -7.22631291e-02
      -5.68843372e-02 -6.05100840e-02 4.91609471e-03 -5.01369052e-02
      1.82586145e-02 -8.85054190e-03 3.79615724e-02 -1.12817176e-01
      1.94131024e-02 5.44981360e-02 2.20895745e-02 4.21797438e-03
      8.23567994e-03 4.68432121e-02 9.92173404e-02 1.88924968e-01
      5.11116162e-02 3.52577679e-02 -8.20685476e-02 -1.59136400e-01
      -7.34772533e-02 2.76548173e-02 4.70611528e-02 5.48759028e-02
      1.84123456e-01 4.29860763e-02 -3.78897153e-02 -4.76698354e-02
      -3.39482836e-02 -3.15098464e-02 -9.94819179e-02 7.70597532e-02
      5.25331087e-02 1.15985081e-01 3.03823184e-02 6.43640533e-02
      -2.18022149e-03 -1.02349393e-01 -8.34537446e-02 -6.76239356e-02
      2.64234263e-02 7.16456100e-02 1.57243893e-01 1.16223484e-01
      2.07221881e-02 -6.32481975e-03 -2.00655358e-03 -5.89410514e-02
      -1.09460622e-01 -2.14960705e-02 3.94143276e-02 -1.75980851e-02
      6.72382042e-02 6.42056689e-02 9.97446012e-03 1.60145275e-02
      5.91050275e-03 8.55672807e-02 2.37502325e-02 3.07626389e-02
      -7.21313432e-02 1.55720208e-02 3.78300920e-02 7.29903728e-02
      6.34961054e-02 -2.57009547e-02 -5.28749079e-02 1.66584328e-02
      -3.58550251e-02 -1.43506572e-01 -4.52971123e-02 5.39922602e-02
      5.04274555e-02 2.63824803e-03 3.92445475e-02 3.00512277e-02
      1.10741496e-01 1.94735099e-02 -1.36767760e-01 -2.11432520e-02
      -2.06372589e-02 -6.83795521e-03 -2.10469011e-02 -3.84325311e-02
      9.43449810e-02 8.62581357e-02 -1.63877029e-02 -2.14627273e-02
      -4.06675860e-02 -9.36352983e-02 -3.50950845e-02 -4.33337921e-03
      2.11441610e-03 7.79329687e-02 -4.08673510e-02 -7.88763538e-02
      -7.98627958e-02 -1.43976822e-01 -4.01356304e-03 2.77813282e-02
      -1.97869968e-02 -4.08210885e-03 -5.67982113e-03 9.42437723e-02
      5.62067926e-02 -3.39954048e-02 -4.27137129e-02 -1.80238709e-02
      2.69512087e-02 2.01734118e-02 3.52434292e-02 5.09577850e-03
      5.40704541e-02 1.13335229e-01 -3.26180495e-02 -6.53470680e-02
      -8.17388669e-02 -6.30093664e-02 -3.18900011e-02 3.51771712e-02
      4.49868217e-02 1.51974708e-03 -7.40182549e-02 -9.81964618e-02
      -1.45945475e-01 -8.15150365e-02 -5.28276935e-02 -1.75987836e-02
      6.95937946e-02 5.50441518e-02 5.87303005e-02 1.00708112e-01
      3.03094126e-02 -6.11147434e-02 -5.23580126e-02 -5.32969125e-02
      -2.84335539e-02 -1.28611606e-02 -8.40699207e-03 4.64095697e-02
      5.25354519e-02 -1.62363667e-02 -2.01692358e-02 1.99170434e-03
      -3.31086256e-02 -7.79694319e-02 1.47474678e-02 5.18828928e-02
      1.09537981e-01 1.39544964e-01 7.21009150e-02 1.14587126e-02
      -1.27104566e-01 -3.77959348e-02 -1.39900495e-03 5.55284806e-02
      -6.63976222e-02 5.32169305e-02 6.20206408e-02 1.32632911e-01
      -6.52907565e-02 -4.06601019e-02 -3.77220958e-02 7.34140053e-02
      2.84571480e-02 -4.37854901e-02 6.33474216e-02 2.40719710e-02
      9.59961489e-02 -3.02361548e-02 -1.13323547e-01 -6.12713881e-02
      -2.27063224e-02 2.10721865e-02 -7.91600812e-03 5.20070158e-02
      3.20808589e-02 1.10453829e-01 2.53874343e-03 -2.66889427e-02
      -3.76751348e-02 6.54794499e-02 4.84262705e-02 -3.39760594e-02
      2.85624843e-02 3.63415107e-02 1.05801962e-01 4.37700488e-02
      -6.29553422e-02 -4.07280866e-03 8.63234177e-02 4.16473540e-06
      -1.44199375e-02 8.07496607e-02 4.19059545e-02 1.33298263e-02
      -5.05091287e-02 -4.63866070e-02 1.74909346e-02 -1.35176675e-02
      -2.73238160e-02 -1.21293431e-02 2.47314125e-02 -2.57194415e-02
      -2.64420044e-02 -5.38727976e-02 1.47135211e-02 -2.76801772e-02
      6.43043891e-02 1.76673401e-02 7.78311351e-03 4.94548157e-02
      6.36880696e-02 6.10590801e-02 8.19900855e-02 5.69513487e-03
      -3.73503380e-02 -1.71517953e-03 -7.59648532e-03 -1.59611031e-02
      2.39379797e-02 -2.47765798e-02 -1.38515802e-02 6.89274515e-04
      2.67491285e-02 5.75099438e-02 7.27848038e-02 2.29057111e-02
      2.51484625e-02 3.48115377e-02 8.25550482e-02 9.16907191e-02
      -7.06755556e-03 -7.62450397e-02 -1.69442445e-02 2.70821955e-02
      3.34088760e-03 -1.71892084e-02 -6.76690266e-02 -4.59056459e-02
      3.54201086e-02 -6.43957406e-02 6.62521124e-02 4.17906828e-02
      -2.72238953e-03 8.36572424e-02 9.09255072e-02 9.38492343e-02
      8.25405046e-02 7.48379230e-02 8.33663493e-02 -4.75086551e-03
      -6.43705055e-02 2.26997733e-02 6.44861087e-02 -2.66771540e-02
      -1.17608808e-01 -6.56487197e-02 -3.74915414e-02 2.52155103e-02
      3.13193947e-02 2.42999475e-03 1.00568287e-01 6.21656477e-02
      2.27129776e-02 2.19621928e-03 -1.62819792e-02 6.92554861e-02
      7.01776594e-02 1.05309017e-01 2.43758056e-02 7.92434886e-02
      1.24135064e-02 -1.90197062e-02 -7.90027678e-02 -5.23435622e-02
      1.01864278e-01 1.39200330e-01 3.11370865e-02 -2.54695322e-02
      5.50817624e-02 5.44429570e-02 5.80995493e-02 -8.13764557e-02
      -1.75873756e-01 -7.16634914e-02 5.05628213e-02 4.94474694e-02
      6.51753843e-02 5.56489937e-02 5.76807894e-02 1.33640720e-02
      -8.27365369e-02 -7.75041580e-02 -3.75434831e-02 3.05081904e-02
      4.90415953e-02 9.12908465e-02 4.47834507e-02 -1.79473404e-02
      -4.69997376e-02 4.37217951e-02 5.86695448e-02 -1.17281526e-01
      -1.32249832e-01 1.03697255e-02 1.21782206e-01 1.17181195e-02
      -2.28535142e-02 2.18611285e-02 5.64100966e-02 6.22978695e-02
      -7.67215341e-02 -6.73421845e-02 8.05199593e-02 3.29045616e-02
      2.34302022e-02 4.96493876e-02 -9.63117834e-03 6.99701086e-02
      9.64968428e-02 -6.49676248e-02 -4.23553102e-02 2.78918128e-02
      9.23129637e-03 2.68270224e-02 5.55102341e-02 3.50126550e-02
      5.83785661e-02 6.29251525e-02 -5.67079633e-02 -2.42484454e-02
      -1.10469637e-02 2.73057073e-02 -1.38537241e-02 -5.02240732e-02
      -2.46335436e-02 1.78597611e-03 9.52276960e-02 -4.60798740e-02
      -9.37133282e-03 -8.07240047e-03 -6.47015683e-03 4.10463847e-02
      5.33534288e-02 1.44522991e-02 5.21756895e-03 1.79864064e-01
      7.39020035e-02 1.88189384e-04 8.92558321e-03 -9.20806602e-02
      -2.70848833e-02 1.07317781e-02 5.13660535e-03 -1.75284944e-03
      3.37881744e-02 -2.24351007e-02 8.84971232e-05 3.61313485e-02
      -8.30971915e-03 5.81198111e-02 8.29101428e-02 5.71556948e-02
      -5.08570410e-02 6.29130080e-02 8.65738466e-03 7.68658891e-02
      -2.59654317e-02 -6.79874793e-02 -4.57960442e-02 -3.42303328e-02
      -7.47949928e-02 -2.27044187e-02 5.32602333e-02 2.54216976e-02
      -3.16514522e-02 -2.60317381e-02 -2.33763382e-02 -5.64002432e-02
      -2.66009830e-02 -2.22024471e-02 6.70239031e-02 9.25757810e-02
      4.73079048e-02 4.83645201e-02 -1.96351204e-02 -2.38538487e-03
      -1.09008774e-02 -6.96785236e-03 -8.21236446e-02 -1.06654480e-01
      -5.12074679e-02 -9.07925665e-02 2.46446370e-03 3.15826852e-03
      4.62770686e-02 3.06517482e-02 -1.58254411e-02 -5.02148271e-02
      3.64572369e-02 3.55904028e-02 -4.16858215e-03 5.29223159e-02
      1.12979319e-02 3.69140953e-02 4.67327870e-02 2.59038527e-03
      -4.72652502e-02 -3.20689492e-02 9.80791287e-04 4.01461162e-02
      1.00916773e-01 1.17799244e-03 1.24517083e-02 -5.19584268e-02
      -7.80150369e-02 -8.02263543e-02 -3.49217393e-02 -2.55134236e-02
      4.65519503e-02 8.78281221e-02 -1.24330530e-02 4.73159514e-02
      9.17030424e-02 -6.63490547e-03 -3.98475341e-02 -2.41559613e-02
      1.72305685e-02 3.04162372e-02 5.03016487e-02 6.51494972e-03
      -1.32388379e-02 -7.62209892e-02 -8.61132815e-02 -1.35651693e-01
      -3.79685103e-03 -1.77817121e-02 8.48014951e-02 7.50081763e-02
      1.14052882e-02 1.29882435e-04 2.34572534e-02 -9.20287240e-03
      -2.62006819e-02 1.01389792e-02 6.59735948e-02 9.44705307e-02
      5.11534326e-02 -2.74911094e-02 -8.67188442e-03 -2.88704298e-02
      -1.54964514e-02 -2.81091426e-02 -2.22178511e-02 5.19654714e-03
      2.53690984e-02 -3.31675000e-02 -6.19875006e-02 3.35604302e-03
      -7.35402806e-03 -2.44170204e-02 -2.94987783e-02 8.82962197e-02
      6.72376752e-02 1.79333493e-01 -5.59963807e-02 -1.02652334e-01
      1.17374109e-02 -3.79475430e-02 -6.32257760e-02 -3.71801890e-02
      4.16533053e-02 -9.68636200e-03 5.99189028e-02 -1.13383755e-01
      3.50660197e-02 5.47983125e-02 4.54707369e-02 5.64037226e-02
      6.84517771e-02 5.73035851e-02 9.61365364e-03 5.36098368e-02
      -8.64907634e-03 4.57832441e-02 1.42035382e-02 2.22576875e-02
      3.54247428e-02 -1.43140722e-02 -9.38355476e-02 -9.96327698e-02
      -5.97864427e-02 -4.42969166e-02 -3.50821577e-02 6.82132542e-02
      3.24540660e-02 3.10978368e-02 8.06247443e-02 8.98701847e-02
      7.01760799e-02 1.04809836e-01 -2.46121064e-02 3.01281363e-02
      4.16982584e-02 -9.34227705e-02 -1.39337480e-02 -1.57201197e-02
      7.81571940e-02 5.28016984e-02 3.69465165e-02 5.24097160e-02
      2.31827274e-02 -1.07594384e-02 -6.44314066e-02 6.00049132e-03
      5.03142364e-02 -3.22669856e-02 -1.22777842e-01 -3.17448229e-02
      7.00068939e-03 6.51602075e-02 5.85473068e-02 -2.74106078e-02
      6.30619079e-02 7.37028196e-02 1.41336694e-02 -2.24869084e-02
      -8.56200699e-03 1.78379770e-02 1.55375436e-01 6.16659373e-02
      -5.31542078e-02 -4.23188359e-02 6.98515922e-02 1.22983374e-01
      7.83429071e-02 5.70551194e-02 1.66102976e-01 2.59737223e-01
      1.66135475e-01 7.73686841e-02 2.22728476e-02 9.27326456e-02
      1.51025712e-01 1.21326521e-01 -2.86585167e-02 1.51607648e-01
      -1.95313506e-02 -5.36632799e-02 -3.06730121e-02 4.86416258e-02
      -1.79388386e-03 -5.63468505e-03 1.13621481e-01 -5.23857139e-02
      -8.26472566e-02 -3.89500558e-02 -1.70860440e-02 -1.23527553e-02
      5.71443439e-02 6.99274288e-03 6.80728853e-02 6.55640811e-02
      -4.73116338e-02 -4.23442200e-02 6.50059581e-02 -4.81453091e-02
      -2.01450810e-02 2.26982329e-02 1.02331214e-01 5.57425693e-02
      1.04612440e-01 3.69571033e-03 1.17166759e-02 8.46560765e-03
      -5.03482446e-02 1.02112757e-03 4.35799733e-02 5.77879958e-02
      4.15899307e-02 5.31611368e-02 4.62050065e-02 5.78636043e-02
      -5.44949323e-02 -5.26221544e-02 -4.07806394e-04 3.71878631e-02
      -2.51260195e-02 2.11750492e-02 5.19878194e-02 -1.48947882e-02
      -2.14424040e-02 -8.46313196e-04 -2.38906010e-03 6.02286160e-02
      1.00958861e-01 1.19601965e-01 1.64137539e-02 5.47105595e-02
      -4.82593011e-03 4.87474315e-02 -7.99252912e-02 -4.02504727e-02
      2.38478314e-02 1.88865457e-02 4.08058092e-02 -1.38485366e-02
      7.60371983e-02 4.23851088e-02 -6.69310167e-02 -7.96256736e-02
      2.71664765e-02 5.65919280e-02 5.39980046e-02 9.26371515e-02
      3.04205287e-02 8.82013515e-02 3.98239121e-03 -4.72213179e-02
      3.43713583e-03 -2.67306603e-02 1.45867132e-02 3.21141146e-02
      2.47100219e-02 5.44550642e-03 -7.56482780e-02 -3.80105302e-02
      1.04303509e-02 6.83695301e-02 3.10330205e-02 6.83559403e-02
      1.53467162e-02 4.25164513e-02 5.06251566e-02 1.60825675e-05
      1.31526049e-02 8.99154916e-02 -9.13094357e-02 -4.78124432e-02
      1.42564466e-02 1.66703984e-02 5.50096482e-02 -4.28086370e-02
      -4.22728211e-02 -1.10406175e-01 -5.50587252e-02 1.22951567e-02
      -3.49353882e-03 1.23884669e-02 2.87387744e-02 8.06388184e-02
      -2.90692924e-03 -1.97861753e-02 2.60854829e-02 5.54657616e-02
      1.42605184e-03 -3.95620540e-02 3.92267331e-02 1.02108959e-02
      -2.93649081e-02 -6.13592193e-03 2.48179864e-03 2.47791922e-03
      3.29506472e-02 -2.45691910e-02 -4.75043468e-02 -2.47326232e-02
      -6.98272660e-02 -9.11226645e-02 -9.70665086e-03 2.52171494e-02
      8.89819711e-02 2.96872724e-02 3.66872400e-02 2.17025937e-03
      4.73877452e-02 5.28897345e-02 -1.17447658e-03 5.20793896e-04
      2.42947862e-02 2.49406062e-02 3.89358923e-02 1.76729355e-02
      8.48836228e-02 9.62916240e-02 2.07832437e-02 -5.47249652e-02
      -4.10145707e-02 8.27049464e-03 6.92137778e-02 1.54048186e-02
      -2.97125205e-02 9.76386946e-03 -3.25274989e-02 -5.21693081e-02
      -4.98909652e-02 4.00714055e-02 8.20033550e-02 1.25651821e-01
      -3.25425677e-02 -1.66765042e-02 3.67885791e-02 7.04600755e-03
      -9.79200900e-02 -1.23307072e-02 2.13165991e-02 3.69366072e-02
      8.38669091e-02 -6.48297742e-02 2.41914894e-02 1.04514770e-01
      6.06537201e-02 5.80364699e-03 5.92953945e-03 -1.87083296e-02
      2.92147584e-02 1.01004571e-01 2.92072631e-02 2.99007222e-02
      2.99953762e-02 1.02501921e-02 -3.53341214e-02 -2.58713719e-02
      2.00699437e-02 -7.88164660e-02 5.88995479e-02 -8.05802736e-03
      -2.92808246e-02 3.02078910e-02 5.62528707e-03 -6.21005706e-02
      3.57577130e-02 6.29747063e-02 -1.51731567e-02 4.60278764e-02
      -7.60565000e-03 -1.94513071e-02 -1.55081907e-02 -1.11790687e-01
      -4.77080345e-02 3.40186208e-02 1.16977163e-01 -2.24879570e-02
      4.93075885e-02 4.72992994e-02 8.84472281e-02 6.14819825e-02
      6.28812090e-02 2.49092076e-02 8.22443068e-02 1.04476735e-01
      -1.23903923e-01 -1.40205557e-02 4.83832508e-02 3.69993295e-03
      2.33836211e-02 -7.12639512e-03 4.21933718e-02 1.41374201e-01
      2.33992428e-01 -3.84528115e-02 -5.76549359e-02 -6.70315046e-03
      1.10036023e-01 4.98114806e-03 -1.86915055e-01 -8.94839317e-02
      -3.74575169e-03 1.36334628e-01 2.91331671e-03 2.43599918e-02
      9.62509364e-02 1.33762091e-01 9.81918629e-03 -4.22690511e-02
      -5.10270335e-02 1.06720543e-02 1.82074979e-02 -7.21622705e-02
      -6.50165454e-02 9.49139744e-02 4.05734479e-02 -1.20549165e-02
      -1.79551411e-02 1.05916159e-02 1.16199493e-01 2.43431166e-01
      2.01600208e-03 5.95439598e-03 2.78970767e-02 7.10422993e-02
      -8.45459998e-02 6.14392152e-03 4.13099490e-02 5.39810397e-02
      6.62584826e-02 -1.24416828e-01 -6.09667934e-02 2.08279695e-02
      3.32054049e-02 -4.92451824e-02 -8.49750787e-02 2.03014612e-02
      -1.76545400e-02 5.09368554e-02 3.67002189e-02 -7.61302337e-02
      -3.89234512e-04 4.41069528e-02 -5.25132157e-02 -1.99723989e-03
      6.56805746e-03 2.71904301e-02 4.24247906e-02 -1.68687403e-02
      5.41543365e-02 9.16792229e-02 1.14603937e-01 -2.18401793e-02
      -5.03911749e-02 -3.55336964e-02 -6.42342344e-02 1.69426315e-02
      -4.45970334e-02 -1.81579720e-02 6.86438009e-02 1.28590465e-01
      -6.66251173e-03 -3.56054213e-03 1.66421216e-02 -4.19230610e-02
      -3.48691903e-02 -2.99692694e-02 -1.70434099e-02 1.03940524e-01
      -7.59114698e-02 -6.08858876e-02 9.61925555e-03 8.27778596e-03
      1.80413797e-02 -1.23781646e-02 -3.29119712e-02 2.49140188e-02
      -6.91996366e-02 -2.16596425e-02 1.98816322e-02 1.72157064e-02
      5.45744039e-03 2.85052769e-02 -1.31393336e-02 7.99168542e-04
      3.07749622e-02 4.46921971e-04 6.49081618e-02 5.55840358e-02
      3.33740711e-02 3.86416875e-02 -2.93047167e-02 -4.31882814e-02
      -2.92215440e-02 -2.57784277e-02 2.61684749e-02 9.11257714e-02
      6.13649338e-02 6.52989894e-02 4.74799797e-02 2.36732438e-02
      -3.91201191e-02 -3.75491492e-02 1.98623538e-02 4.84096594e-02
      -3.67083028e-02 -1.15837008e-02 9.08969995e-03 1.87339187e-02
      2.61489786e-02 -8.11110809e-02 -7.67201632e-02 -3.19878608e-02
      -6.62643742e-03 2.54305592e-03 2.80563589e-02 6.99081272e-02
      8.55458528e-02 7.75549486e-02 -2.79453546e-02 -4.25346829e-02
      2.84313466e-02 9.49475542e-03 2.33626775e-02 1.53617014e-03
      2.87965871e-02 1.75451897e-02 3.15748458e-03 -4.45257314e-02
      -5.88385165e-02 5.81795834e-02 8.08812026e-03 5.32420613e-02
      -1.43892858e-02 2.68517509e-02 3.99759784e-02 2.38942113e-02
      -4.88679744e-02 -3.70169133e-02 8.40110779e-02 5.28918998e-03
      2.80434778e-03 6.60775751e-02 8.09339732e-02 9.13910046e-02
      5.00371270e-02 -2.04171389e-02 -2.14708745e-02 8.35253224e-02
      1.39878038e-02 4.57393005e-03 1.15483962e-01 1.09624550e-01
      5.13938181e-02 3.39098019e-03 -1.56534947e-02 -2.37847883e-02
      6.16621673e-02 -8.16558953e-03 6.85224310e-02 1.22672923e-01
      4.07930501e-02 4.64454442e-02 4.35780399e-02 -6.64515495e-02
      1.02335690e-02 1.16244122e-01 7.39294067e-02 3.39367613e-02
      1.01047114e-01 7.61486590e-02 2.20292285e-02 5.59106581e-02
      -3.82734798e-02 -8.79093856e-02 1.90701592e-03 -2.42710225e-02
      -3.58125903e-02 8.86638090e-02 7.01374337e-02 3.42787504e-02
      3.82319465e-02 4.08365279e-02 -1.44266505e-02 7.50702843e-02
      -1.69628765e-02 -3.53343152e-02 -2.51255408e-02 2.69957725e-02
      2.05824003e-02 -1.63834151e-02 4.47534136e-02 -2.46880930e-02
      6.30456582e-02 1.83241293e-02 1.15328478e-02 7.53309429e-02
      2.49755625e-02 1.58638805e-02 2.27732603e-02 1.56455357e-02
      -6.89860880e-02 -1.76055469e-02 -2.78528482e-02 2.28416342e-02
      2.12062988e-03 -4.21227142e-02 -1.81769654e-02 1.01121841e-02
      4.86798771e-02 -5.07272184e-02 3.99718434e-02 -5.81812710e-02
      1.21521968e-02 6.86529698e-03 -4.21976764e-03 3.59307881e-03
      3.17899249e-02 6.75370619e-02 -7.68033490e-02 -3.06148343e-02
      9.63356066e-03 -8.85798037e-02 1.71036460e-02 -3.51438038e-02
      6.69020368e-03 1.16063565e-01 1.89594150e-01 -1.85635150e-03
      -3.21791880e-02 -7.28850737e-02 4.69674692e-02 6.46437183e-02
      -1.36026330e-02 -4.28278446e-02 3.55476737e-02 3.61612625e-02
      2.85110977e-02 3.21781300e-02 7.24586546e-02 1.86209809e-02
      4.00017016e-02 5.11044171e-03 -3.43685187e-02 2.85326466e-02
      7.56301731e-02 1.09947156e-02 2.80077066e-02 7.69478977e-02
      -2.06315350e-02 -1.39270136e-02 -2.20334157e-02 -3.25885192e-02
      6.30054995e-02 1.12727791e-01 -7.01223165e-02 -4.64770496e-02
      1.79401934e-02 6.45282567e-02 9.16525256e-03 -6.33304287e-03
      2.12971363e-02 -3.46908458e-02 6.94213435e-03 -1.24694228e-01
      -1.10140406e-02 9.74559113e-02 3.97976153e-02 2.62154080e-02
      -1.13547519e-02 -7.77661726e-02 -1.27390632e-02 4.33268175e-02
      -4.76400405e-02 4.96702679e-02 6.87772632e-02 6.58995658e-02
      1.76675227e-02 -1.86360069e-02 -1.42748961e-02 -8.78467262e-02
      2.65714377e-02 -4.83547822e-02 1.72399562e-02 1.05188549e-01
      1.68437123e-01 7.22852051e-02 1.63324121e-02 4.16302048e-02
      -1.00304417e-01 -6.87491149e-02 -1.73495069e-01 -7.22124055e-02
      7.59182200e-02 1.58074826e-01 6.58152625e-02 4.20651510e-02
      9.61105227e-02 -6.04273379e-02 -7.00082555e-02 -1.51235223e-01
      -1.46889642e-01 5.90641238e-02 2.20877662e-01 7.98614696e-02
      8.38016644e-02 8.15819278e-02 1.00306503e-01 -2.86177024e-02
      -8.49301144e-02 -1.47139385e-01 1.17553122e-01 1.21621519e-01
      1.04505777e-01 1.05872095e-01 1.18866488e-01 1.10116415e-01
      2.77348962e-02 -1.42906263e-01 -2.21677661e-01 -7.43174925e-02
      4.47023064e-02 9.85680595e-02 7.76593834e-02 6.00505061e-02
      4.70999293e-02 2.29941458e-02 -9.48712900e-02 -1.39729023e-01
      -9.62603185e-03 1.49125408e-03 1.00881539e-01 9.29335728e-02
      9.43515152e-02 6.76931962e-02 1.40010798e-02 -4.64540115e-03
      2.38471497e-02 -4.94993068e-02 -1.42725017e-02 9.54848081e-02
      8.46631378e-02 7.99227729e-02 1.20209105e-01 -2.56450083e-02
      -6.38363734e-02 -2.01424986e-01 -8.42279568e-02 -5.24196289e-02
      9.44215134e-02 8.04014876e-02 6.74706399e-02 9.07070264e-02
      -3.07272468e-02 5.44184782e-02 -1.97872147e-02 -9.38388184e-02
      2.32602786e-02 9.34330598e-02 8.23799968e-02 5.17355800e-02
      7.26346001e-02 -2.98412051e-02 -2.89253350e-02 7.44786561e-02
      -2.83260718e-02 5.36774993e-02 1.05294557e-02 7.56675825e-02
      8.37020352e-02 5.06055690e-02 -5.63620925e-02 -9.94528644e-03
      9.16890502e-02 4.57677171e-02 -4.39582542e-02 8.35736468e-02
      7.33271837e-02 1.33885648e-02 8.56512263e-02 -6.57563955e-02
      -2.09950618e-02 -5.45555493e-03 -6.81536645e-02 -1.73701402e-02
      3.69611420e-02 8.64492655e-02 8.04100707e-02 5.77045605e-02
      -8.24595764e-02 -2.74362657e-02 6.00881763e-02 -6.64551035e-02
      7.01735392e-02 8.36448222e-02 7.24877417e-02 7.29259625e-02
      7.61317909e-02 -8.41243789e-02 -4.09846902e-02 8.88122320e-02
      2.99731288e-02 -6.78394409e-03 1.25391454e-01 7.35187307e-02
      4.09812443e-02 1.01659991e-01 -2.07184423e-02 -4.42050546e-02
      -8.40420648e-03 -8.43539312e-02 -2.37768274e-02 4.34639603e-02
      7.00602904e-02 8.43834504e-02 1.11599296e-01 -8.90796334e-02
      -4.34615137e-03 5.60261831e-02 -8.10513124e-02 -7.71432593e-02
      3.62069160e-02 5.21558933e-02 4.16249484e-02 8.90735164e-02
      -7.92386234e-02 -3.71658206e-02 -1.80221759e-02 -9.19629484e-02
      -1.69152003e-02 8.40336233e-02 2.03886665e-02 3.15604582e-02
      1.15277782e-01 -1.28879212e-02 -8.65929127e-02 3.15175764e-02
      -7.52205625e-02 -2.68302448e-02 1.20799877e-01 2.10527820e-03
      1.81753468e-02 1.36692792e-01 2.65642777e-02 -7.20535070e-02
      5.21025471e-02 -1.04896285e-01 -6.43197894e-02 3.12980376e-02
      -4.77581192e-03 7.13965332e-04 4.63578478e-02 -1.04435690e-01
      4.53579873e-02 9.24281552e-02 -4.96205539e-02 -2.63600070e-02
      6.22398704e-02 5.99540258e-03 7.28620123e-03 5.19317836e-02
      -4.69648950e-02 8.67072716e-02 1.33238465e-01 -7.17600808e-02
      -9.80348513e-02 2.28798818e-02 -2.47358792e-02 -4.61998070e-03
      4.26465087e-02 1.38522610e-02 -9.97028966e-03 4.07220349e-02
      -6.83643594e-02 -6.58101663e-02 -4.15358245e-02 -6.28867224e-02
      2.13769320e-02 8.22818279e-03 1.77640319e-02 2.30970085e-02
      9.04328600e-02 -1.01021712e-03 -1.05937406e-01 3.41672376e-02
      -3.33115645e-02 2.59655453e-02 5.97988702e-02 1.46621382e-02
      1.53663603e-03 9.27270129e-02 -1.08750343e-01 -1.30367860e-01
      -4.94993515e-02 -7.19879270e-02 8.23620856e-02 4.25504521e-02
      2.92475913e-02 8.87975916e-02 1.40826344e-01 -3.18798721e-02
      -3.22046503e-02 -8.35441723e-02 -7.75744095e-02 -6.93527684e-02
      -7.66615244e-03 -4.16750275e-03 1.94934178e-02 7.61899278e-02
      3.42653692e-02 2.56157108e-02 -5.06761149e-02 -8.94153044e-02
      -3.32502499e-02 -2.23398078e-02 6.90254420e-02 2.23927833e-02
      9.28034112e-02 3.41455229e-02 -6.48176000e-02 -1.11608356e-01
      -1.66281581e-01 1.01920720e-02 2.14753356e-02 -2.28843577e-02
      9.02076662e-02 1.26322433e-01 9.83798951e-02 7.26901814e-02
      -8.41186121e-02 -1.26468703e-01 2.11384390e-02 2.21597515e-02
      7.84990340e-02 6.94280937e-02 9.70834419e-02 1.60250261e-01</_></support_vectors>
  <decision_functions>
    <_>
      <sv_count>1</sv_count>
      <rho>1.5955693817653229e+00</rho>
      <alpha>
        1.</alpha>
      <index>
        0</index></_></decision_functions></my_svm>
</opencv_storage>
